net 
{ 
}
node SD 
{
  states = ( "1" "2" "3" "4" "5" );
}
node Q0 
{
  states = ( "1" "2" );
}
node kappa 
{
  states = ( "1" "2" "3" );
}
node Vs30 
{
  states = ( "1" "2" );
}
node MAG 
{
  states = ( "1" "2" );
}
node DIST 
{
  states = ( "1" "2" "3" "4" );
}
node PGA 
{
  states = ( "1" "2" "3" "4" "5" "6" "7" "8" "9" );
}
potential ( SD ) 
{
  data = ( 0.2507778 0.2098889 0.1145556 0.1615556 0.2632222 );
}
potential ( Q0 | PGA ) 
{
  data = ((0.6223338 0.3776662)(0.4397959 0.5602041)(0.4254302 0.5745698)(0.3771712 0.6228288)(0.3717277 0.6282723)(0.3684211 0.6315789)(0.3976793 0.6023207)(0.3768328 0.6231672)(1.0 0.0)) ;
}
potential ( kappa | PGA ) 
{
  data = ((0.3751568 0.2848181 0.3400251)(0.4122449 0.2806122 0.3071429)(0.4101338 0.3040153 0.2858509)(0.4665012 0.2735732 0.2599256)(0.5124346 0.2761780 0.2113874)(0.5910384 0.2197724 0.1891892)(0.6170886 0.2478903 0.1350211)(0.80791789 0.15249267 0.03958944)(1.0 0.0 0.0)) ;
}
potential ( Vs30 ) 
{
  data = ( 0.4974444 0.5025556 );
}
potential ( MAG | PGA ) 
{
  data = ((0.6750314 0.3249686)(0.5979592 0.4020408)(0.5535373 0.4464627)(0.5334988 0.4665012)(0.486911 0.513089)(0.4331437 0.5668563)(0.4588608 0.5411392)(0.3445748 0.6554252)(0.0 1.0)) ;
}
potential ( DIST ) 
{
  data = ( 0.2791111 0.2402222 0.2423333 0.2383333 );
}
potential ( PGA | SD DIST ) 
{
  data = (((0.00000000 0.02321725 0.14427861 0.45771144 0.29850746 0.07296849 0.00331675 0.00000000 0.00000000)(0.012939002 0.236598891 0.375231054 0.321626617 0.049907579 0.003696858 0.000000000 0.000000000 0.000000000)(0.324955117 0.427289048 0.199281867 0.046678636 0.001795332 0.000000000 0.000000000 0.000000000 0.000000000)(0.75000000 0.22302158 0.02697842 0.00000000 0.00000000 0.00000000 0.00000000 0.00000000 0.00000000))((0.00000000 0.00000000 0.00000000 0.11873840 0.40074212 0.39517625 0.08534323 0.00000000 0.00000000)(0.000000000 0.008547009 0.102564103 0.416666667 0.348290598 0.117521368 0.006410256 0.000000000 0.000000000)(0.023148148 0.254629630 0.354166667 0.310185185 0.055555556 0.002314815 0.000000000 0.000000000 0.000000000)(0.295555556 0.388888889 0.224444444 0.088888889 0.002222222 0.000000000 0.000000000 0.000000000 0.000000000))((0.00000000 0.00000000 0.00000000 0.02281369 0.12547529 0.49049430 0.30798479 0.05323194 0.00000000)(0.000000000 0.000000000 0.003802281 0.125475285 0.501901141 0.346007605 0.022813688 0.000000000 0.000000000)(0.003984064 0.047808765 0.207171315 0.478087649 0.219123506 0.043824701 0.000000000 0.000000000 0.000000000)(0.08661417 0.33070866 0.31889764 0.20472441 0.05905512 0.00000000 0.00000000 0.00000000 0.00000000))((0.0000000 0.0000000 0.0000000 0.0000000 0.0270936 0.2758621 0.4532020 0.2438424 0.0000000)(0.000000000 0.000000000 0.000000000 0.023188406 0.301449275 0.478260870 0.191304348 0.005797101 0.000000000)(0.00000000 0.01542416 0.09254499 0.33419023 0.37017995 0.17223650 0.01542416 0.00000000 0.00000000)(0.05414013 0.15605096 0.26114650 0.39171975 0.11783439 0.01910828 0.00000000 0.00000000 0.00000000))((0.000000000 0.000000000 0.000000000 0.000000000 0.000000000 0.065620542 0.278174037 0.654778887 0.001426534)(0.000000000 0.000000000 0.000000000 0.003669725 0.066055046 0.278899083 0.460550459 0.190825688 0.000000000)(0.000000000 0.000000000 0.007246377 0.079710145 0.320652174 0.402173913 0.182971014 0.007246377 0.000000000)(0.01576182 0.06304729 0.12609457 0.32399299 0.30122592 0.15761821 0.01225919 0.00000000 0.00000000))) ;
}
