net 
{ 
}
node SD 
{
  states = ( "1" "2" "3" "4" "5" );
}
node Q0 
{
  states = ( "1" "2" );
}
node kappa 
{
  states = ( "1" "2" "3" );
}
node Vs30 
{
  states = ( "1" "2" );
}
node MAG 
{
  states = ( "1" "2" );
}
node DIST 
{
  states = ( "1" "2" "3" "4" );
}
node PGA 
{
  states = ( "1" "2" "3" "4" "5" "6" "7" "8" "9" );
}
potential ( SD ) 
{
  data = ( 0.2507778 0.2098889 0.1145556 0.1615556 0.2632222 );
}
potential ( Q0 ) 
{
  data = ( 0.4112222 0.5887778 );
}
potential ( kappa ) 
{
  data = ( 0.515 0.259 0.226 );
}
potential ( Vs30 ) 
{
  data = ( 0.4974444 0.5025556 );
}
potential ( MAG ) 
{
  data = ( 0.5095556 0.4904444 );
}
potential ( DIST ) 
{
  data = ( 0.2791111 0.2402222 0.2423333 0.2383333 );
}
potential ( PGA | SD kappa MAG DIST ) 
{
  data = (((((0.00000000 0.00000000 0.05847953 0.43274854 0.45614035 0.05263158 0.00000000 0.00000000 0.00000000)(0.00000000 0.13669065 0.46043165 0.37410072 0.02877698 0.00000000 0.00000000 0.00000000 0.00000000)(0.24657534 0.50684932 0.22602740 0.02054795 0.00000000 0.00000000 0.00000000 0.00000000 0.00000000)(0.7202797 0.2797203 0.0000000 0.0000000 0.0000000 0.0000000 0.0000000 0.0000000 0.0000000))((0.00000000 0.00000000 0.00000000 0.21969697 0.51515152 0.25000000 0.01515152 0.00000000 0.00000000)(0.00000000 0.02877698 0.17266187 0.61870504 0.16546763 0.01438849 0.00000000 0.00000000 0.00000000)(0.068702290 0.366412214 0.381679389 0.175572519 0.007633588 0.000000000 0.000000000 0.000000000 0.000000000)(0.55033557 0.36241611 0.08724832 0.00000000 0.00000000 0.00000000 0.00000000 0.00000000 0.00000000)))(((0.00000000 0.02439024 0.23170732 0.64634146 0.09756098 0.00000000 0.00000000 0.00000000 0.00000000)(0.01298701 0.50649351 0.42857143 0.05194805 0.00000000 0.00000000 0.00000000 0.00000000 0.00000000)(0.48648649 0.50000000 0.01351351 0.00000000 0.00000000 0.00000000 0.00000000 0.00000000 0.00000000)(0.95890411 0.04109589 0.00000000 0.00000000 0.00000000 0.00000000 0.00000000 0.00000000 0.00000000))((0.00000000 0.00000000 0.06060606 0.54545455 0.36363636 0.03030303 0.00000000 0.00000000 0.00000000)(0.0000000 0.1000000 0.5714286 0.3285714 0.0000000 0.0000000 0.0000000 0.0000000 0.0000000)(0.1594203 0.4927536 0.3478261 0.0000000 0.0000000 0.0000000 0.0000000 0.0000000 0.0000000)(0.70149254 0.26865672 0.02985075 0.00000000 0.00000000 0.00000000 0.00000000 0.00000000 0.00000000)))(((0.00000000 0.13235294 0.45588235 0.39705882 0.01470588 0.00000000 0.00000000 0.00000000 0.00000000)(0.11111111 0.66666667 0.18518519 0.03703704 0.00000000 0.00000000 0.00000000 0.00000000 0.00000000)(0.8157895 0.1842105 0.0000000 0.0000000 0.0000000 0.0000000 0.0000000 0.0000000 0.0000000)(0.98507463 0.01492537 0.00000000 0.00000000 0.00000000 0.00000000 0.00000000 0.00000000 0.00000000))((0.00000000 0.03571429 0.27380952 0.67857143 0.01190476 0.00000000 0.00000000 0.00000000 0.00000000)(0.0000000 0.3709677 0.5161290 0.1129032 0.0000000 0.0000000 0.0000000 0.0000000 0.0000000)(0.44262295 0.50819672 0.04918033 0.00000000 0.00000000 0.00000000 0.00000000 0.00000000 0.00000000)(0.8596491 0.1403509 0.0000000 0.0000000 0.0000000 0.0000000 0.0000000 0.0000000 0.0000000))))((((0.00000000 0.00000000 0.00000000 0.02919708 0.35036496 0.56934307 0.05109489 0.00000000 0.00000000)(0.00000000 0.00000000 0.05263158 0.44736842 0.40350877 0.09649123 0.00000000 0.00000000 0.00000000)(0.01980198 0.17821782 0.35643564 0.40594059 0.03960396 0.00000000 0.00000000 0.00000000 0.00000000)(0.31531532 0.39639640 0.24324324 0.04504505 0.00000000 0.00000000 0.00000000 0.00000000 0.00000000))((0.0000000 0.0000000 0.0000000 0.0000000 0.1240876 0.6131387 0.2627737 0.0000000 0.0000000)(0.00000000 0.00000000 0.00000000 0.08955224 0.55970149 0.32835821 0.02238806 0.00000000 0.00000000)(0.000000000 0.072072072 0.234234234 0.522522523 0.162162162 0.009009009 0.000000000 0.000000000 0.000000000)(0.105691057 0.284552846 0.333333333 0.268292683 0.008130081 0.000000000 0.000000000 0.000000000 0.000000000)))(((0.0000000 0.0000000 0.0000000 0.2361111 0.6250000 0.1388889 0.0000000 0.0000000 0.0000000)(0.0000000 0.0000000 0.2545455 0.6363636 0.1090909 0.0000000 0.0000000 0.0000000 0.0000000)(0.01315789 0.35526316 0.51315789 0.11842105 0.00000000 0.00000000 0.00000000 0.00000000 0.00000000)(0.5000000 0.4516129 0.0483871 0.0000000 0.0000000 0.0000000 0.0000000 0.0000000 0.0000000))((0.000000 0.000000 0.000000 0.000000 0.500000 0.453125 0.046875 0.000000 0.000000)(0.00000000 0.00000000 0.01724138 0.46551724 0.51724138 0.00000000 0.00000000 0.00000000 0.00000000)(0.00 0.12 0.44 0.40 0.04 0.00 0.00 0.00 0.00)(0.19672131 0.44262295 0.32786885 0.03278689 0.00000000 0.00000000 0.00000000 0.00000000 0.00000000)))(((0.0000000 0.0000000 0.0000000 0.5172414 0.4827586 0.0000000 0.0000000 0.0000000 0.0000000)(0.00 0.08 0.44 0.48 0.00 0.00 0.00 0.00 0.00)(0.14 0.70 0.14 0.02 0.00 0.00 0.00 0.00 0.00)(0.745098 0.254902 0.000000 0.000000 0.000000 0.000000 0.000000 0.000000 0.000000))((0.0000000 0.0000000 0.0000000 0.1830986 0.6478873 0.1690141 0.0000000 0.0000000 0.0000000)(0.0000000 0.0000000 0.0877193 0.8070175 0.1052632 0.0000000 0.0000000 0.0000000 0.0000000)(0.0000000 0.3636364 0.5227273 0.1136364 0.0000000 0.0000000 0.0000000 0.0000000 0.0000000)(0.0952381 0.6666667 0.2380952 0.0000000 0.0000000 0.0000000 0.0000000 0.0000000 0.0000000))))((((0.00000000 0.00000000 0.00000000 0.00000000 0.00000000 0.56626506 0.42168675 0.01204819 0.00000000)(0.00000000 0.00000000 0.00000000 0.01351351 0.45945946 0.51351351 0.01351351 0.00000000 0.00000000)(0.000000 0.046875 0.109375 0.578125 0.265625 0.000000 0.000000 0.000000 0.000000)(0.13725490 0.29411765 0.37254902 0.15686275 0.03921569 0.00000000 0.00000000 0.00000000 0.00000000))((0.0000000 0.0000000 0.0000000 0.0000000 0.0000000 0.2105263 0.5614035 0.2280702 0.0000000)(0.00000000 0.00000000 0.00000000 0.00000000 0.27777778 0.65277778 0.06944444 0.00000000 0.00000000)(0.00000000 0.00000000 0.08196721 0.31147541 0.44262295 0.16393443 0.00000000 0.00000000 0.00000000)(0.01785714 0.17857143 0.17857143 0.39285714 0.23214286 0.00000000 0.00000000 0.00000000 0.00000000)))(((0.0000000 0.0000000 0.0000000 0.0000000 0.2608696 0.6086957 0.1304348 0.0000000 0.0000000)(0.00000000 0.00000000 0.00000000 0.29032258 0.64516129 0.06451613 0.00000000 0.00000000 0.00000000)(0.00000000 0.06451613 0.32258065 0.61290323 0.00000000 0.00000000 0.00000000 0.00000000 0.00000000)(0.2142857 0.3333333 0.3333333 0.1190476 0.0000000 0.0000000 0.0000000 0.0000000 0.0000000))((0.0000000 0.0000000 0.0000000 0.0000000 0.0000000 0.7142857 0.2857143 0.0000000 0.0000000)(0.00000000 0.00000000 0.00000000 0.02702703 0.89189189 0.08108108 0.00000000 0.00000000 0.00000000)(0.00000000 0.00000000 0.03030303 0.63636364 0.30303030 0.03030303 0.00000000 0.00000000 0.00000000)(0.02941176 0.14705882 0.44117647 0.38235294 0.00000000 0.00000000 0.00000000 0.00000000 0.00000000)))(((0.00000 0.00000 0.00000 0.18750 0.65625 0.15625 0.00000 0.00000 0.00000)(0.00000000 0.00000000 0.03846154 0.69230769 0.26923077 0.00000000 0.00000000 0.00000000 0.00000000)(0.025 0.175 0.550 0.250 0.000 0.000 0.000 0.000 0.000)(0.08108108 0.78378378 0.10810811 0.02702703 0.00000000 0.00000000 0.00000000 0.00000000 0.00000000))((0.00000000 0.00000000 0.00000000 0.00000000 0.18181818 0.78787879 0.03030303 0.00000000 0.00000000)(0.00000000 0.00000000 0.00000000 0.17391304 0.78260870 0.04347826 0.00000000 0.00000000 0.00000000)(0.00000000 0.00000000 0.31818182 0.63636364 0.04545455 0.00000000 0.00000000 0.00000000 0.00000000)(0.02941176 0.32352941 0.55882353 0.08823529 0.00000000 0.00000000 0.00000000 0.00000000 0.00000000))))((((0.0000000 0.0000000 0.0000000 0.0000000 0.0000000 0.1454545 0.6909091 0.1636364 0.0000000)(0.0000 0.0000 0.0000 0.0000 0.1375 0.6375 0.2250 0.0000 0.0000)(0.00000000 0.00000000 0.04040404 0.29292929 0.50505051 0.16161616 0.00000000 0.00000000 0.00000000)(0.07058824 0.14117647 0.27058824 0.44705882 0.07058824 0.00000000 0.00000000 0.00000000 0.00000000))((0.000000000 0.000000000 0.000000000 0.000000000 0.000000000 0.008849558 0.318584071 0.672566372 0.000000000)(0.00000000 0.00000000 0.00000000 0.00000000 0.02083333 0.50000000 0.45833333 0.02083333 0.00000000)(0.00 0.00 0.00 0.10 0.37 0.47 0.06 0.00 0.00)(0.01369863 0.06849315 0.12328767 0.34246575 0.36986301 0.08219178 0.00000000 0.00000000 0.00000000)))(((0.00000000 0.00000000 0.00000000 0.00000000 0.03921569 0.54901961 0.41176471 0.00000000 0.00000000)(0.00000000 0.00000000 0.00000000 0.06818182 0.65909091 0.27272727 0.00000000 0.00000000 0.00000000)(0.00000000 0.01923077 0.09615385 0.71153846 0.17307692 0.00000000 0.00000000 0.00000000 0.00000000)(0.06 0.24 0.44 0.26 0.00 0.00 0.00 0.00 0.00))((0.0000000 0.0000000 0.0000000 0.0000000 0.0000000 0.1041667 0.7916667 0.1041667 0.0000000)(0.00000000 0.00000000 0.00000000 0.00000000 0.16279070 0.74418605 0.09302326 0.00000000 0.00000000)(0.00000000 0.00000000 0.01851852 0.24074074 0.66666667 0.07407407 0.00000000 0.00000000 0.00000000)(0.02777778 0.11111111 0.13888889 0.63888889 0.08333333 0.00000000 0.00000000 0.00000000 0.00000000)))(((0.00000000 0.00000000 0.00000000 0.00000000 0.20454545 0.77272727 0.02272727 0.00000000 0.00000000)(0.00000000 0.00000000 0.00000000 0.09523810 0.85714286 0.04761905 0.00000000 0.00000000 0.00000000)(0.00000000 0.08928571 0.37500000 0.51785714 0.01785714 0.00000000 0.00000000 0.00000000 0.00000000)(0.2142857 0.4285714 0.3571429 0.0000000 0.0000000 0.0000000 0.0000000 0.0000000 0.0000000))((0.0 0.0 0.0 0.0 0.0 0.7 0.3 0.0 0.0)(0.000 0.000 0.000 0.025 0.475 0.500 0.000 0.000 0.000)(0.0000000 0.0000000 0.1785714 0.4285714 0.3928571 0.0000000 0.0000000 0.0000000 0.0000000)(0.00000000 0.09523810 0.30952381 0.57142857 0.02380952 0.00000000 0.00000000 0.00000000 0.00000000))))((((0.0000000 0.0000000 0.0000000 0.0000000 0.0000000 0.0000000 0.1256545 0.8743455 0.0000000)(0.000000000 0.000000000 0.000000000 0.000000000 0.006993007 0.223776224 0.657342657 0.111888112 0.000000000)(0.00000000 0.00000000 0.01379310 0.06206897 0.27586207 0.46896552 0.17931034 0.00000000 0.00000000)(0.025477707 0.076433121 0.114649682 0.363057325 0.343949045 0.070063694 0.006369427 0.000000000 0.000000000))((0.000000000 0.000000000 0.000000000 0.000000000 0.000000000 0.000000000 0.027932961 0.966480447 0.005586592)(0.00000000 0.00000000 0.00000000 0.00000000 0.00000000 0.02083333 0.41666667 0.56250000 0.00000000)(0.000000000 0.000000000 0.000000000 0.006666667 0.080000000 0.433333333 0.453333333 0.026666667 0.000000000)(0.00000000 0.02238806 0.01492537 0.18656716 0.35074627 0.38059701 0.04477612 0.00000000 0.00000000)))(((0.00000000 0.00000000 0.00000000 0.00000000 0.00000000 0.06818182 0.59090909 0.34090909 0.00000000)(0.0000000 0.0000000 0.0000000 0.0000000 0.1014493 0.5797101 0.3188406 0.0000000 0.0000000)(0.0000000 0.0000000 0.0000000 0.1267606 0.6338028 0.2394366 0.0000000 0.0000000 0.0000000)(0.04938272 0.09876543 0.19753086 0.41975309 0.20987654 0.02469136 0.00000000 0.00000000 0.00000000))((0.00000000 0.00000000 0.00000000 0.00000000 0.00000000 0.01162791 0.26744186 0.72093023 0.00000000)(0.0000000 0.0000000 0.0000000 0.0000000 0.0000000 0.1571429 0.7428571 0.1000000 0.0000000)(0.00000000 0.00000000 0.00000000 0.02666667 0.25333333 0.62666667 0.09333333 0.00000000 0.00000000)(0.00000000 0.01408451 0.09859155 0.18309859 0.45070423 0.25352113 0.00000000 0.00000000 0.00000000)))(((0.00000000 0.00000000 0.00000000 0.00000000 0.00000000 0.38823529 0.57647059 0.03529412 0.00000000)(0.00000000 0.00000000 0.00000000 0.03448276 0.41379310 0.46551724 0.08620690 0.00000000 0.00000000)(0.00 0.00 0.04 0.44 0.52 0.00 0.00 0.00 0.00)(0.01515152 0.16666667 0.36363636 0.42424242 0.03030303 0.00000000 0.00000000 0.00000000 0.00000000))((0.00000000 0.00000000 0.00000000 0.00000000 0.00000000 0.08333333 0.58333333 0.33333333 0.00000000)(0.00000000 0.00000000 0.00000000 0.00000000 0.06557377 0.63934426 0.29508197 0.00000000 0.00000000)(0.00000000 0.00000000 0.00000000 0.01639344 0.57377049 0.40983607 0.00000000 0.00000000 0.00000000)(0.00000000 0.01612903 0.08064516 0.45161290 0.32258065 0.12903226 0.00000000 0.00000000 0.00000000))))) ;
}
