net 
{ 
}
node SD 
{
  states = ( "1" "2" "3" "4" "5" );
}
node Q0 
{
  states = ( "1" "2" );
}
node kappa 
{
  states = ( "1" "2" "3" );
}
node Vs30 
{
  states = ( "1" "2" );
}
node MAG 
{
  states = ( "1" "2" );
}
node DIST 
{
  states = ( "1" "2" "3" "4" );
}
node PGA 
{
  states = ( "1" "2" "3" "4" "5" "6" "7" "8" "9" );
}
potential ( SD ) 
{
  data = ( 0.2507778 0.2098889 0.1145556 0.1615556 0.2632222 );
}
potential ( Q0 ) 
{
  data = ( 0.4112222 0.5887778 );
}
potential ( kappa ) 
{
  data = ( 0.515 0.259 0.226 );
}
potential ( Vs30 | Q0 kappa ) 
{
  data = (((0.5135422 0.4864578)(0.5 0.5)(0.4871795 0.5128205))((0.4920058 0.5079942)(0.5032823 0.4967177)(0.4829932 0.5170068))) ;
}
potential ( MAG | SD ) 
{
  data = ((0.5183872 0.4816128)(0.4960296 0.5039704)(0.5179437 0.4820563)(0.5096286 0.4903714)(0.5082313 0.4917687)) ;
}
potential ( DIST ) 
{
  data = ( 0.2791111 0.2402222 0.2423333 0.2383333 );
}
potential ( PGA | Vs30 MAG DIST ) 
{
  data = ((((0.000000000 0.006441224 0.040257649 0.156199678 0.178743961 0.204508857 0.220611916 0.193236715 0.000000000)(0.007518797 0.090225564 0.116541353 0.184210526 0.210526316 0.214285714 0.156015038 0.020676692 0.000000000)(0.12477718 0.18538324 0.18003565 0.21568627 0.16577540 0.09982175 0.02852050 0.00000000 0.00000000)(0.340463458 0.229946524 0.142602496 0.172905526 0.096256684 0.016042781 0.001782531 0.000000000 0.000000000))((0.000000000 0.000000000 0.016129032 0.106451613 0.153225806 0.219354839 0.179032258 0.324193548 0.001612903)(0.00000000 0.03024575 0.06805293 0.17580340 0.20037807 0.24574669 0.18336484 0.09640832 0.00000000)(0.037174721 0.118959108 0.159851301 0.184014870 0.215613383 0.197026022 0.079925651 0.007434944 0.000000000)(0.196116505 0.207766990 0.155339806 0.205825243 0.128155340 0.097087379 0.009708738 0.000000000 0.000000000)))(((0.00000000 0.01038576 0.05192878 0.16913947 0.20029674 0.22700297 0.19436202 0.14688427 0.00000000)(0.005725191 0.095419847 0.167938931 0.204198473 0.215648855 0.192748092 0.108778626 0.009541985 0.000000000)(0.13157895 0.20877193 0.15438596 0.23508772 0.17368421 0.07894737 0.01754386 0.00000000 0.00000000)(0.359116022 0.230202578 0.184162063 0.169429098 0.049723757 0.007366483 0.000000000 0.000000000 0.000000000))((0.000000000 0.005025126 0.028475712 0.115577889 0.165829146 0.214405360 0.216080402 0.254606365 0.000000000)(0.00000000 0.03119584 0.11438475 0.19757366 0.22703640 0.20797227 0.15424610 0.06759099 0.00000000)(0.05273438 0.15429688 0.15820312 0.19531250 0.18164062 0.18359375 0.07421875 0.00000000 0.00000000)(0.211026616 0.203422053 0.173003802 0.199619772 0.148288973 0.062737643 0.001901141 0.000000000 0.000000000)))) ;
}
