net 
{ 
}
node SD 
{
  states = ( "1" "2" "3" "4" "5" );
}
node Q0 
{
  states = ( "1" "2" );
}
node kappa 
{
  states = ( "1" "2" "3" );
}
node Vs30 
{
  states = ( "1" "2" );
}
node MAG 
{
  states = ( "1" "2" );
}
node DIST 
{
  states = ( "1" "2" "3" "4" );
}
node PGA 
{
  states = ( "1" "2" "3" "4" "5" "6" "7" "8" "9" );
}
potential ( SD ) 
{
  data = ( 0.2507778 0.2098889 0.1145556 0.1615556 0.2632222 );
}
potential ( Q0 ) 
{
  data = ( 0.4112222 0.5887778 );
}
potential ( kappa ) 
{
  data = ( 0.515 0.259 0.226 );
}
potential ( Vs30 ) 
{
  data = ( 0.4974444 0.5025556 );
}
potential ( MAG ) 
{
  data = ( 0.5095556 0.4904444 );
}
potential ( DIST ) 
{
  data = ( 0.2791111 0.2402222 0.2423333 0.2383333 );
}
potential ( PGA | SD Q0 kappa Vs30 MAG DIST ) 
{
  data = (((((((0.00000000 0.00000000 0.02325581 0.44186047 0.46511628 0.06976744 0.00000000 0.00000000 0.00000000)(0.0000000 0.2666667 0.3333333 0.3000000 0.1000000 0.0000000 0.0000000 0.0000000 0.0000000)(0.3793103 0.4827586 0.1379310 0.0000000 0.0000000 0.0000000 0.0000000 0.0000000 0.0000000)(0.96 0.04 0.00 0.00 0.00 0.00 0.00 0.00 0.00))((0.0000000 0.0000000 0.0000000 0.2142857 0.5357143 0.2500000 0.0000000 0.0000000 0.0000000)(0.00 0.04 0.12 0.64 0.20 0.00 0.00 0.00 0.00)(0.2500000 0.4166667 0.3333333 0.0000000 0.0000000 0.0000000 0.0000000 0.0000000 0.0000000)(0.85 0.15 0.00 0.00 0.00 0.00 0.00 0.00 0.00)))(((0.00000000 0.00000000 0.11904762 0.45238095 0.38095238 0.04761905 0.00000000 0.00000000 0.00000000)(0.0000000 0.1428571 0.5714286 0.2857143 0.0000000 0.0000000 0.0000000 0.0000000 0.0000000)(0.46428571 0.50000000 0.03571429 0.00000000 0.00000000 0.00000000 0.00000000 0.00000000 0.00000000)(0.96296296 0.03703704 0.00000000 0.00000000 0.00000000 0.00000000 0.00000000 0.00000000 0.00000000))((0.0000000 0.0000000 0.0000000 0.4285714 0.4642857 0.1071429 0.0000000 0.0000000 0.0000000)(0.00000 0.06250 0.28125 0.50000 0.15625 0.00000 0.00000 0.00000 0.00000)(0.1666667 0.6666667 0.1666667 0.0000000 0.0000000 0.0000000 0.0000000 0.0000000 0.0000000)(0.9375 0.0625 0.0000 0.0000 0.0000 0.0000 0.0000 0.0000 0.0000))))((((0.0000000 0.0000000 0.2857143 0.6190476 0.0952381 0.0000000 0.0000000 0.0000000 0.0000000)(0.000 0.375 0.625 0.000 0.000 0.000 0.000 0.000 0.000)(0.625 0.375 0.000 0.000 0.000 0.000 0.000 0.000 0.000)(1.0 0.0 0.0 0.0 0.0 0.0 0.0 0.0 0.0))((0.00000000 0.00000000 0.00000000 0.50000000 0.41666667 0.08333333 0.00000000 0.00000000 0.00000000)(0.0000000 0.2142857 0.5000000 0.2857143 0.0000000 0.0000000 0.0000000 0.0000000 0.0000000)(0.4285714 0.5714286 0.0000000 0.0000000 0.0000000 0.0000000 0.0000000 0.0000000 0.0000000)(1.0 0.0 0.0 0.0 0.0 0.0 0.0 0.0 0.0)))(((0.0000000 0.0000000 0.3636364 0.6363636 0.0000000 0.0000000 0.0000000 0.0000000 0.0000000)(0.0000000 0.6666667 0.3333333 0.0000000 0.0000000 0.0000000 0.0000000 0.0000000 0.0000000)(0.5454545 0.4545455 0.0000000 0.0000000 0.0000000 0.0000000 0.0000000 0.0000000 0.0000000)(1.0 0.0 0.0 0.0 0.0 0.0 0.0 0.0 0.0))((0.00000000 0.00000000 0.14285714 0.57142857 0.21428571 0.07142857 0.00000000 0.00000000 0.00000000)(0.0000000 0.1666667 0.5000000 0.3333333 0.0000000 0.0000000 0.0000000 0.0000000 0.0000000)(0.23529412 0.70588235 0.05882353 0.00000000 0.00000000 0.00000000 0.00000000 0.00000000 0.00000000)(0.8333333 0.1666667 0.0000000 0.0000000 0.0000000 0.0000000 0.0000000 0.0000000 0.0000000))))((((0.0 0.0 0.6 0.4 0.0 0.0 0.0 0.0 0.0)(0.125 0.625 0.250 0.000 0.000 0.000 0.000 0.000 0.000)(1.0 0.0 0.0 0.0 0.0 0.0 0.0 0.0 0.0)(1.0 0.0 0.0 0.0 0.0 0.0 0.0 0.0 0.0))((0.0000 0.0000 0.3125 0.6250 0.0625 0.0000 0.0000 0.0000 0.0000)(0.0000000 0.4666667 0.4000000 0.1333333 0.0000000 0.0000000 0.0000000 0.0000000 0.0000000)(0.2 0.7 0.1 0.0 0.0 0.0 0.0 0.0 0.0)(0.8181818 0.1818182 0.0000000 0.0000000 0.0000000 0.0000000 0.0000000 0.0000000 0.0000000)))(((0.0000000 0.1428571 0.6428571 0.2142857 0.0000000 0.0000000 0.0000000 0.0000000 0.0000000)(0.2727273 0.5454545 0.1818182 0.0000000 0.0000000 0.0000000 0.0000000 0.0000000 0.0000000)(0.7 0.3 0.0 0.0 0.0 0.0 0.0 0.0 0.0)(1.0 0.0 0.0 0.0 0.0 0.0 0.0 0.0 0.0))((0.0000000 0.1333333 0.2666667 0.6000000 0.0000000 0.0000000 0.0000000 0.0000000 0.0000000)(0.0000 0.3125 0.6250 0.0625 0.0000 0.0000 0.0000 0.0000 0.0000)(0.7142857 0.2857143 0.0000000 0.0000000 0.0000000 0.0000000 0.0000000 0.0000000 0.0000000)(1.0 0.0 0.0 0.0 0.0 0.0 0.0 0.0 0.0)))))(((((0.00000000 0.00000000 0.02941176 0.23529412 0.64705882 0.08823529 0.00000000 0.00000000 0.00000000)(0.00000000 0.02941176 0.41176471 0.52941176 0.02941176 0.00000000 0.00000000 0.00000000 0.00000000)(0.02439024 0.51219512 0.39024390 0.07317073 0.00000000 0.00000000 0.00000000 0.00000000 0.00000000)(0.462963 0.537037 0.000000 0.000000 0.000000 0.000000 0.000000 0.000000 0.000000))((0.00000000 0.00000000 0.00000000 0.09523810 0.50000000 0.35714286 0.04761905 0.00000000 0.00000000)(0.000 0.000 0.075 0.600 0.275 0.050 0.000 0.000 0.000)(0.00000000 0.25000000 0.38636364 0.34090909 0.02272727 0.00000000 0.00000000 0.00000000 0.00000000)(0.1951220 0.6341463 0.1707317 0.0000000 0.0000000 0.0000000 0.0000000 0.0000000 0.0000000)))(((0.00000000 0.00000000 0.05769231 0.53846154 0.38461538 0.01923077 0.00000000 0.00000000 0.00000000)(0.0000000 0.1276596 0.5106383 0.3617021 0.0000000 0.0000000 0.0000000 0.0000000 0.0000000)(0.2291667 0.5208333 0.2500000 0.0000000 0.0000000 0.0000000 0.0000000 0.0000000 0.0000000)(0.7567568 0.2432432 0.0000000 0.0000000 0.0000000 0.0000000 0.0000000 0.0000000 0.0000000))((0.0000000 0.0000000 0.0000000 0.2058824 0.5588235 0.2352941 0.0000000 0.0000000 0.0000000)(0.00000000 0.02380952 0.21428571 0.71428571 0.04761905 0.00000000 0.00000000 0.00000000 0.00000000)(0.0000000 0.3333333 0.4888889 0.1777778 0.0000000 0.0000000 0.0000000 0.0000000 0.0000000)(0.2777778 0.5555556 0.1666667 0.0000000 0.0000000 0.0000000 0.0000000 0.0000000 0.0000000))))((((0.00000000 0.00000000 0.07407407 0.77777778 0.14814815 0.00000000 0.00000000 0.00000000 0.00000000)(0.03703704 0.44444444 0.40740741 0.11111111 0.00000000 0.00000000 0.00000000 0.00000000 0.00000000)(0.36 0.60 0.04 0.00 0.00 0.00 0.00 0.00 0.00)(0.9047619 0.0952381 0.0000000 0.0000000 0.0000000 0.0000000 0.0000000 0.0000000 0.0000000))((0.0000000 0.0000000 0.0000000 0.5384615 0.4615385 0.0000000 0.0000000 0.0000000 0.0000000)(0.0000000 0.0000000 0.4444444 0.5555556 0.0000000 0.0000000 0.0000000 0.0000000 0.0000000)(0.0000000 0.2380952 0.7619048 0.0000000 0.0000000 0.0000000 0.0000000 0.0000000 0.0000000)(0.375 0.500 0.125 0.000 0.000 0.000 0.000 0.000 0.000)))(((0.00000000 0.08695652 0.30434783 0.52173913 0.08695652 0.00000000 0.00000000 0.00000000 0.00000000)(0.00000000 0.59090909 0.36363636 0.04545455 0.00000000 0.00000000 0.00000000 0.00000000 0.00000000)(0.5 0.5 0.0 0.0 0.0 0.0 0.0 0.0 0.0)(0.95 0.05 0.00 0.00 0.00 0.00 0.00 0.00 0.00))((0.0000000 0.0000000 0.1428571 0.5714286 0.2857143 0.0000000 0.0000000 0.0000000 0.0000000)(0.00 0.05 0.80 0.15 0.00 0.00 0.00 0.00 0.00)(0.05882353 0.52941176 0.41176471 0.00000000 0.00000000 0.00000000 0.00000000 0.00000000 0.00000000)(0.6111111 0.3888889 0.0000000 0.0000000 0.0000000 0.0000000 0.0000000 0.0000000 0.0000000))))((((0.00000000 0.22222222 0.33333333 0.38888889 0.05555556 0.00000000 0.00000000 0.00000000 0.00000000)(0.08695652 0.65217391 0.17391304 0.08695652 0.00000000 0.00000000 0.00000000 0.00000000 0.00000000)(0.7647059 0.2352941 0.0000000 0.0000000 0.0000000 0.0000000 0.0000000 0.0000000 0.0000000)(0.94736842 0.05263158 0.00000000 0.00000000 0.00000000 0.00000000 0.00000000 0.00000000 0.00000000))((0.0000000 0.0000000 0.1923077 0.8076923 0.0000000 0.0000000 0.0000000 0.0000000 0.0000000)(0.0000000 0.4166667 0.4166667 0.1666667 0.0000000 0.0000000 0.0000000 0.0000000 0.0000000)(0.46153846 0.46153846 0.07692308 0.00000000 0.00000000 0.00000000 0.00000000 0.00000000 0.00000000)(0.8235294 0.1764706 0.0000000 0.0000000 0.0000000 0.0000000 0.0000000 0.0000000 0.0000000)))(((0.0000000 0.1428571 0.3333333 0.5238095 0.0000000 0.0000000 0.0000000 0.0000000 0.0000000)(0.0000000 0.8333333 0.1666667 0.0000000 0.0000000 0.0000000 0.0000000 0.0000000 0.0000000)(0.8095238 0.1904762 0.0000000 0.0000000 0.0000000 0.0000000 0.0000000 0.0000000 0.0000000)(1.0 0.0 0.0 0.0 0.0 0.0 0.0 0.0 0.0))((0.00000000 0.03703704 0.33333333 0.62962963 0.00000000 0.00000000 0.00000000 0.00000000 0.00000000)(0.0000000 0.3157895 0.5789474 0.1052632 0.0000000 0.0000000 0.0000000 0.0000000 0.0000000)(0.37500000 0.58333333 0.04166667 0.00000000 0.00000000 0.00000000 0.00000000 0.00000000 0.00000000)(0.8 0.2 0.0 0.0 0.0 0.0 0.0 0.0 0.0))))))((((((0.00000000 0.00000000 0.00000000 0.04166667 0.29166667 0.54166667 0.12500000 0.00000000 0.00000000)(0.00000000 0.00000000 0.08695652 0.34782609 0.39130435 0.17391304 0.00000000 0.00000000 0.00000000)(0.09090909 0.22727273 0.31818182 0.36363636 0.00000000 0.00000000 0.00000000 0.00000000 0.00000000)(0.65 0.30 0.05 0.00 0.00 0.00 0.00 0.00 0.00))((0.00000000 0.00000000 0.00000000 0.00000000 0.07407407 0.59259259 0.33333333 0.00000000 0.00000000)(0.00000000 0.00000000 0.00000000 0.09677419 0.54838710 0.35483871 0.00000000 0.00000000 0.00000000)(0.00000000 0.23076923 0.23076923 0.38461538 0.11538462 0.03846154 0.00000000 0.00000000 0.00000000)(0.2916667 0.4583333 0.2500000 0.0000000 0.0000000 0.0000000 0.0000000 0.0000000 0.0000000)))(((0.00000000 0.00000000 0.00000000 0.05128205 0.46153846 0.48717949 0.00000000 0.00000000 0.00000000)(0.00 0.00 0.12 0.56 0.24 0.08 0.00 0.00 0.00)(0.0000000 0.4705882 0.3529412 0.1764706 0.0000000 0.0000000 0.0000000 0.0000000 0.0000000)(0.8 0.2 0.0 0.0 0.0 0.0 0.0 0.0 0.0))((0.00 0.00 0.00 0.00 0.28 0.48 0.24 0.00 0.00)(0.0000000 0.0000000 0.0000000 0.1785714 0.6428571 0.1785714 0.0000000 0.0000000 0.0000000)(0.00000000 0.08333333 0.50000000 0.41666667 0.00000000 0.00000000 0.00000000 0.00000000 0.00000000)(0.2857143 0.4285714 0.2857143 0.0000000 0.0000000 0.0000000 0.0000000 0.0000000 0.0000000))))((((0.00 0.00 0.00 0.00 0.75 0.25 0.00 0.00 0.00)(0.00000000 0.00000000 0.09090909 0.81818182 0.09090909 0.00000000 0.00000000 0.00000000 0.00000000)(0.00000000 0.58333333 0.33333333 0.08333333 0.00000000 0.00000000 0.00000000 0.00000000 0.00000000)(0.8181818 0.1818182 0.0000000 0.0000000 0.0000000 0.0000000 0.0000000 0.0000000 0.0000000))((0.0000000 0.0000000 0.0000000 0.0000000 0.5833333 0.4166667 0.0000000 0.0000000 0.0000000)(0.00000000 0.00000000 0.07142857 0.50000000 0.42857143 0.00000000 0.00000000 0.00000000 0.00000000)(0.0 0.2 0.6 0.2 0.0 0.0 0.0 0.0 0.0)(0.3333333 0.6666667 0.0000000 0.0000000 0.0000000 0.0000000 0.0000000 0.0000000 0.0000000)))(((0.0000000 0.0000000 0.0000000 0.1176471 0.7647059 0.1176471 0.0000000 0.0000000 0.0000000)(0.0 0.0 0.5 0.5 0.0 0.0 0.0 0.0 0.0)(0.0625 0.5000 0.4375 0.0000 0.0000 0.0000 0.0000 0.0000 0.0000)(0.90909091 0.09090909 0.00000000 0.00000000 0.00000000 0.00000000 0.00000000 0.00000000 0.00000000))((0.0000000 0.0000000 0.0000000 0.0000000 0.6666667 0.2000000 0.1333333 0.0000000 0.0000000)(0.000 0.000 0.000 0.625 0.375 0.000 0.000 0.000 0.000)(0.0 0.3 0.4 0.3 0.0 0.0 0.0 0.0 0.0)(0.5 0.5 0.0 0.0 0.0 0.0 0.0 0.0 0.0))))((((0.0000000 0.0000000 0.0000000 0.4615385 0.5384615 0.0000000 0.0000000 0.0000000 0.0000000)(0.0 0.1 0.4 0.5 0.0 0.0 0.0 0.0 0.0)(0.45454545 0.45454545 0.09090909 0.00000000 0.00000000 0.00000000 0.00000000 0.00000000 0.00000000)(1.0 0.0 0.0 0.0 0.0 0.0 0.0 0.0 0.0))((0.00000000 0.00000000 0.00000000 0.06666667 0.46666667 0.46666667 0.00000000 0.00000000 0.00000000)(0.00000000 0.00000000 0.06666667 0.80000000 0.13333333 0.00000000 0.00000000 0.00000000 0.00000000)(0.0000000 0.3846154 0.6153846 0.0000000 0.0000000 0.0000000 0.0000000 0.0000000 0.0000000)(0.2 0.6 0.2 0.0 0.0 0.0 0.0 0.0 0.0)))(((0.0000000 0.0000000 0.0000000 0.7777778 0.2222222 0.0000000 0.0000000 0.0000000 0.0000000)(0.00000000 0.08333333 0.58333333 0.33333333 0.00000000 0.00000000 0.00000000 0.00000000 0.00000000)(0.2 0.7 0.1 0.0 0.0 0.0 0.0 0.0 0.0)(0.875 0.125 0.000 0.000 0.000 0.000 0.000 0.000 0.000))((0.0000000 0.0000000 0.0000000 0.2941176 0.5882353 0.1176471 0.0000000 0.0000000 0.0000000)(0.00000000 0.00000000 0.00000000 0.94117647 0.05882353 0.00000000 0.00000000 0.00000000 0.00000000)(0.0 0.5 0.5 0.0 0.0 0.0 0.0 0.0 0.0)(0.25 0.75 0.00 0.00 0.00 0.00 0.00 0.00 0.00)))))(((((0.00000000 0.00000000 0.00000000 0.00000000 0.21621622 0.72972973 0.05405405 0.00000000 0.00000000)(0.00000000 0.00000000 0.02941176 0.38235294 0.47058824 0.11764706 0.00000000 0.00000000 0.00000000)(0.00000 0.06250 0.31250 0.53125 0.09375 0.00000 0.00000 0.00000 0.00000)(0.09756098 0.46341463 0.31707317 0.12195122 0.00000000 0.00000000 0.00000000 0.00000000 0.00000000))((0.0000000 0.0000000 0.0000000 0.0000000 0.0000000 0.6585366 0.3414634 0.0000000 0.0000000)(0.00000000 0.00000000 0.00000000 0.02941176 0.35294118 0.55882353 0.05882353 0.00000000 0.00000000)(0.0000000 0.0000000 0.1034483 0.5172414 0.3793103 0.0000000 0.0000000 0.0000000 0.0000000)(0.00000000 0.12820513 0.28205128 0.56410256 0.02564103 0.00000000 0.00000000 0.00000000 0.00000000)))(((0.00000000 0.00000000 0.00000000 0.02702703 0.40540541 0.51351351 0.05405405 0.00000000 0.00000000)(0.00000 0.00000 0.00000 0.50000 0.46875 0.03125 0.00000 0.00000 0.00000)(0.00000000 0.10000000 0.43333333 0.43333333 0.03333333 0.00000000 0.00000000 0.00000000 0.00000000)(0.06666667 0.50000000 0.43333333 0.00000000 0.00000000 0.00000000 0.00000000 0.00000000 0.00000000))((0.0000000 0.0000000 0.0000000 0.0000000 0.1818182 0.6590909 0.1590909 0.0000000 0.0000000)(0.00000000 0.00000000 0.00000000 0.07317073 0.68292683 0.21951220 0.02439024 0.00000000 0.00000000)(0.00000 0.00000 0.15625 0.71875 0.12500 0.00000 0.00000 0.00000 0.00000)(0.0000000 0.2564103 0.4615385 0.2820513 0.0000000 0.0000000 0.0000000 0.0000000 0.0000000))))((((0.0000000 0.0000000 0.0000000 0.3157895 0.5263158 0.1578947 0.0000000 0.0000000 0.0000000)(0.0000000 0.0000000 0.0000000 0.7333333 0.2666667 0.0000000 0.0000000 0.0000000 0.0000000)(0.0000000 0.1111111 0.6666667 0.2222222 0.0000000 0.0000000 0.0000000 0.0000000 0.0000000)(0.2380952 0.6190476 0.1428571 0.0000000 0.0000000 0.0000000 0.0000000 0.0000000 0.0000000))((0.0000 0.0000 0.0000 0.0000 0.3125 0.6875 0.0000 0.0000 0.0000)(0.0000000 0.0000000 0.0000000 0.1052632 0.8947368 0.0000000 0.0000000 0.0000000 0.0000000)(0.0000000 0.0000000 0.2666667 0.6000000 0.1333333 0.0000000 0.0000000 0.0000000 0.0000000)(0.00000000 0.22222222 0.72222222 0.05555556 0.00000000 0.00000000 0.00000000 0.00000000 0.00000000)))(((0.00 0.00 0.00 0.45 0.50 0.05 0.00 0.00 0.00)(0.00000000 0.00000000 0.42105263 0.52631579 0.05263158 0.00000000 0.00000000 0.00000000 0.00000000)(0.0000000 0.4285714 0.4761905 0.0952381 0.0000000 0.0000000 0.0000000 0.0000000 0.0000000)(0.3684211 0.6315789 0.0000000 0.0000000 0.0000000 0.0000000 0.0000000 0.0000000 0.0000000))((0.00000000 0.00000000 0.00000000 0.00000000 0.47619048 0.47619048 0.04761905 0.00000000 0.00000000)(0.0000000 0.0000000 0.0000000 0.7647059 0.2352941 0.0000000 0.0000000 0.0000000 0.0000000)(0.0 0.0 0.5 0.5 0.0 0.0 0.0 0.0 0.0)(0.00000000 0.46666667 0.46666667 0.06666667 0.00000000 0.00000000 0.00000000 0.00000000 0.00000000))))((((0.0000 0.0000 0.0000 0.5625 0.4375 0.0000 0.0000 0.0000 0.0000)(0.0 0.0 0.3 0.7 0.0 0.0 0.0 0.0 0.0)(0.0000 0.8750 0.0625 0.0625 0.0000 0.0000 0.0000 0.0000 0.0000)(0.5833333 0.4166667 0.0000000 0.0000000 0.0000000 0.0000000 0.0000000 0.0000000 0.0000000))((0.0000000 0.0000000 0.0000000 0.1818182 0.6818182 0.1363636 0.0000000 0.0000000 0.0000000)(0.0000000 0.0000000 0.1538462 0.6153846 0.2307692 0.0000000 0.0000000 0.0000000 0.0000000)(0.0000000 0.2500000 0.4166667 0.3333333 0.0000000 0.0000000 0.0000000 0.0000000 0.0000000)(0.0000000 0.5882353 0.4117647 0.0000000 0.0000000 0.0000000 0.0000000 0.0000000 0.0000000)))(((0.0 0.0 0.0 0.4 0.6 0.0 0.0 0.0 0.0)(0.0000000 0.1111111 0.4444444 0.4444444 0.0000000 0.0000000 0.0000000 0.0000000 0.0000000)(0.0000000 0.6923077 0.3076923 0.0000000 0.0000000 0.0000000 0.0000000 0.0000000 0.0000000)(0.6 0.4 0.0 0.0 0.0 0.0 0.0 0.0 0.0))((0.0000000 0.0000000 0.0000000 0.1764706 0.8235294 0.0000000 0.0000000 0.0000000 0.0000000)(0.0000000 0.0000000 0.1666667 0.8333333 0.0000000 0.0000000 0.0000000 0.0000000 0.0000000)(0.00000000 0.38461538 0.53846154 0.07692308 0.00000000 0.00000000 0.00000000 0.00000000 0.00000000)(0.09090909 0.81818182 0.09090909 0.00000000 0.00000000 0.00000000 0.00000000 0.00000000 0.00000000))))))((((((0.0000 0.0000 0.0000 0.0000 0.0000 0.5625 0.4375 0.0000 0.0000)(0.00 0.00 0.00 0.00 0.25 0.75 0.00 0.00 0.00)(0.0 0.1 0.0 0.7 0.2 0.0 0.0 0.0 0.0)(0.54545455 0.36363636 0.09090909 0.00000000 0.00000000 0.00000000 0.00000000 0.00000000 0.00000000))((0.0000000 0.0000000 0.0000000 0.0000000 0.0000000 0.1428571 0.5000000 0.3571429 0.0000000)(0.0000 0.0000 0.0000 0.0000 0.2500 0.6875 0.0625 0.0000 0.0000)(0.0000000 0.0000000 0.1764706 0.4117647 0.2941176 0.1176471 0.0000000 0.0000000 0.0000000)(0.0000000 0.8571429 0.1428571 0.0000000 0.0000000 0.0000000 0.0000000 0.0000000 0.0000000)))(((0.0000000 0.0000000 0.0000000 0.0000000 0.0000000 0.6666667 0.3333333 0.0000000 0.0000000)(0.0000 0.0000 0.0000 0.0625 0.6250 0.3125 0.0000 0.0000 0.0000)(0.0000 0.1250 0.4375 0.3125 0.1250 0.0000 0.0000 0.0000 0.0000)(0.09090909 0.63636364 0.27272727 0.00000000 0.00000000 0.00000000 0.00000000 0.00000000 0.00000000))((0.0000000 0.0000000 0.0000000 0.0000000 0.0000000 0.2222222 0.6666667 0.1111111 0.0000000)(0.0000000 0.0000000 0.0000000 0.0000000 0.6153846 0.3846154 0.0000000 0.0000000 0.0000000)(0.000 0.000 0.250 0.375 0.375 0.000 0.000 0.000 0.000)(0.1 0.3 0.6 0.0 0.0 0.0 0.0 0.0 0.0))))((((0.0000000 0.0000000 0.0000000 0.0000000 0.0000000 0.3333333 0.6666667 0.0000000 0.0000000)(0.0 0.0 0.0 0.0 1.0 0.0 0.0 0.0 0.0)(0.0 0.0 0.6 0.4 0.0 0.0 0.0 0.0 0.0)(0.500 0.375 0.125 0.000 0.000 0.000 0.000 0.000 0.000))((0.0 0.0 0.0 0.0 0.0 0.5 0.5 0.0 0.0)(0.00 0.00 0.00 0.00 0.75 0.25 0.00 0.00 0.00)(0.0000000 0.0000000 0.3333333 0.6666667 0.0000000 0.0000000 0.0000000 0.0000000 0.0000000)(0.000 0.375 0.500 0.125 0.000 0.000 0.000 0.000 0.000)))(((0.0 0.0 0.0 0.0 0.4 0.6 0.0 0.0 0.0)(0.0000000 0.0000000 0.0000000 0.6666667 0.3333333 0.0000000 0.0000000 0.0000000 0.0000000)(0.0000000 0.1428571 0.2857143 0.5714286 0.0000000 0.0000000 0.0000000 0.0000000 0.0000000)(0.625 0.250 0.125 0.000 0.000 0.000 0.000 0.000 0.000))((0.000 0.000 0.000 0.000 0.000 0.875 0.125 0.000 0.000)(0.00000000 0.00000000 0.00000000 0.00000000 0.91666667 0.08333333 0.00000000 0.00000000 0.00000000)(0.0 0.0 0.0 1.0 0.0 0.0 0.0 0.0 0.0)(0.125 0.250 0.625 0.000 0.000 0.000 0.000 0.000 0.000))))((((0.0 0.0 0.0 0.0 0.8 0.2 0.0 0.0 0.0)(0.0 0.0 0.0 1.0 0.0 0.0 0.0 0.0 0.0)(0.07692308 0.23076923 0.53846154 0.15384615 0.00000000 0.00000000 0.00000000 0.00000000 0.00000000)(0.0000000 0.8571429 0.1428571 0.0000000 0.0000000 0.0000000 0.0000000 0.0000000 0.0000000))((0.0000000 0.0000000 0.0000000 0.0000000 0.1111111 0.8888889 0.0000000 0.0000000 0.0000000)(0.0 0.0 0.0 0.5 0.5 0.0 0.0 0.0 0.0)(0.00 0.00 0.75 0.25 0.00 0.00 0.00 0.00 0.00)(0.2 0.4 0.4 0.0 0.0 0.0 0.0 0.0 0.0)))(((0.0 0.0 0.0 0.4 0.4 0.2 0.0 0.0 0.0)(0.0 0.0 0.0 1.0 0.0 0.0 0.0 0.0 0.0)(0.0 0.0 1.0 0.0 0.0 0.0 0.0 0.0 0.0)(0.2857143 0.7142857 0.0000000 0.0000000 0.0000000 0.0000000 0.0000000 0.0000000 0.0000000))((0.0000000 0.0000000 0.0000000 0.0000000 0.1428571 0.8571429 0.0000000 0.0000000 0.0000000)(0.0000000 0.0000000 0.0000000 0.3333333 0.6666667 0.0000000 0.0000000 0.0000000 0.0000000)(0.0000000 0.0000000 0.1428571 0.8571429 0.0000000 0.0000000 0.0000000 0.0000000 0.0000000)(0.0000000 0.6153846 0.3846154 0.0000000 0.0000000 0.0000000 0.0000000 0.0000000 0.0000000)))))(((((0.00000000 0.00000000 0.00000000 0.00000000 0.00000000 0.38461538 0.57692308 0.03846154 0.00000000)(0.00000000 0.00000000 0.00000000 0.00000000 0.42105263 0.52631579 0.05263158 0.00000000 0.00000000)(0.0000000 0.0000000 0.0000000 0.1818182 0.8181818 0.0000000 0.0000000 0.0000000 0.0000000)(0.00000000 0.07692308 0.46153846 0.30769231 0.15384615 0.00000000 0.00000000 0.00000000 0.00000000))((0.0000 0.0000 0.0000 0.0000 0.0000 0.1875 0.4375 0.3750 0.0000)(0.0000000 0.0000000 0.0000000 0.0000000 0.1363636 0.7272727 0.1363636 0.0000000 0.0000000)(0.00000000 0.00000000 0.00000000 0.05882353 0.58823529 0.35294118 0.00000000 0.00000000 0.00000000)(0.00000000 0.00000000 0.05263158 0.52631579 0.42105263 0.00000000 0.00000000 0.00000000 0.00000000)))(((0.0000000 0.0000000 0.0000000 0.0000000 0.0000000 0.6956522 0.3043478 0.0000000 0.0000000)(0.0000000 0.0000000 0.0000000 0.0000000 0.4814815 0.5185185 0.0000000 0.0000000 0.0000000)(0.0000000 0.0000000 0.0000000 0.8518519 0.1481481 0.0000000 0.0000000 0.0000000 0.0000000)(0.0000 0.1875 0.5625 0.2500 0.0000 0.0000 0.0000 0.0000 0.0000))((0.00000000 0.00000000 0.00000000 0.00000000 0.00000000 0.27777778 0.66666667 0.05555556 0.00000000)(0.00000000 0.00000000 0.00000000 0.00000000 0.23809524 0.71428571 0.04761905 0.00000000 0.00000000)(0.0000000 0.0000000 0.0000000 0.4210526 0.4736842 0.1052632 0.0000000 0.0000000 0.0000000)(0.00 0.05 0.10 0.60 0.25 0.00 0.00 0.00 0.00))))((((0.00 0.00 0.00 0.00 0.00 0.75 0.25 0.00 0.00)(0.0000000 0.0000000 0.0000000 0.0000000 0.7777778 0.2222222 0.0000000 0.0000000 0.0000000)(0.0000000 0.0000000 0.3333333 0.6666667 0.0000000 0.0000000 0.0000000 0.0000000 0.0000000)(0.0000000 0.1111111 0.5555556 0.3333333 0.0000000 0.0000000 0.0000000 0.0000000 0.0000000))((0.0 0.0 0.0 0.0 0.0 1.0 0.0 0.0 0.0)(0.0000000 0.0000000 0.0000000 0.0000000 0.8571429 0.1428571 0.0000000 0.0000000 0.0000000)(0.00000000 0.00000000 0.00000000 0.60000000 0.33333333 0.06666667 0.00000000 0.00000000 0.00000000)(0.0000000 0.0000000 0.1666667 0.8333333 0.0000000 0.0000000 0.0000000 0.0000000 0.0000000)))(((0.0000000 0.0000000 0.0000000 0.0000000 0.3636364 0.6363636 0.0000000 0.0000000 0.0000000)(0.0000000 0.0000000 0.0000000 0.4285714 0.5714286 0.0000000 0.0000000 0.0000000 0.0000000)(0.0 0.1 0.2 0.7 0.0 0.0 0.0 0.0 0.0)(0.0000000 0.4705882 0.4117647 0.1176471 0.0000000 0.0000000 0.0000000 0.0000000 0.0000000))((0.0000000 0.0000000 0.0000000 0.0000000 0.0000000 0.6363636 0.3636364 0.0000000 0.0000000)(0.00000000 0.00000000 0.00000000 0.07142857 0.92857143 0.00000000 0.00000000 0.00000000 0.00000000)(0.0 0.0 0.0 0.5 0.5 0.0 0.0 0.0 0.0)(0.0000000 0.0000000 0.4166667 0.5833333 0.0000000 0.0000000 0.0000000 0.0000000 0.0000000))))((((0.0000000 0.0000000 0.0000000 0.1428571 0.5714286 0.2857143 0.0000000 0.0000000 0.0000000)(0.0000000 0.0000000 0.0000000 0.5833333 0.4166667 0.0000000 0.0000000 0.0000000 0.0000000)(0.0000 0.0625 0.5625 0.3750 0.0000 0.0000 0.0000 0.0000 0.0000)(0.00000000 0.72727273 0.18181818 0.09090909 0.00000000 0.00000000 0.00000000 0.00000000 0.00000000))((0.00000000 0.00000000 0.00000000 0.00000000 0.30769231 0.61538462 0.07692308 0.00000000 0.00000000)(0.0000000 0.0000000 0.0000000 0.1428571 0.8571429 0.0000000 0.0000000 0.0000000 0.0000000)(0.0000000 0.0000000 0.1666667 0.6666667 0.1666667 0.0000000 0.0000000 0.0000000 0.0000000)(0.0000000 0.0000000 0.7142857 0.2857143 0.0000000 0.0000000 0.0000000 0.0000000 0.0000000)))(((0.00000000 0.00000000 0.00000000 0.20000000 0.73333333 0.06666667 0.00000000 0.00000000 0.00000000)(0.0000000 0.0000000 0.1111111 0.6666667 0.2222222 0.0000000 0.0000000 0.0000000 0.0000000)(0.0000000 0.3333333 0.4444444 0.2222222 0.0000000 0.0000000 0.0000000 0.0000000 0.0000000)(0.08333333 0.83333333 0.08333333 0.00000000 0.00000000 0.00000000 0.00000000 0.00000000 0.00000000))((0.0 0.0 0.0 0.0 0.0 1.0 0.0 0.0 0.0)(0.000 0.000 0.000 0.000 0.875 0.125 0.000 0.000 0.000)(0.0 0.0 0.4 0.6 0.0 0.0 0.0 0.0 0.0)(0.0000000 0.1111111 0.7777778 0.1111111 0.0000000 0.0000000 0.0000000 0.0000000 0.0000000))))))((((((0.0 0.0 0.0 0.0 0.0 0.2 0.6 0.2 0.0)(0.00000000 0.00000000 0.00000000 0.00000000 0.16666667 0.77777778 0.05555556 0.00000000 0.00000000)(0.00 0.00 0.15 0.50 0.35 0.00 0.00 0.00 0.00)(0.23529412 0.41176471 0.29411765 0.05882353 0.00000000 0.00000000 0.00000000 0.00000000 0.00000000))((0.00000000 0.00000000 0.00000000 0.00000000 0.00000000 0.03846154 0.23076923 0.73076923 0.00000000)(0.00000000 0.00000000 0.00000000 0.00000000 0.00000000 0.47826087 0.47826087 0.04347826 0.00000000)(0.0000000 0.0000000 0.0000000 0.2500000 0.4583333 0.2916667 0.0000000 0.0000000 0.0000000)(0.00 0.25 0.25 0.50 0.00 0.00 0.00 0.00 0.00)))(((0.00000000 0.00000000 0.00000000 0.00000000 0.00000000 0.16666667 0.76666667 0.06666667 0.00000000)(0.0000000 0.0000000 0.0000000 0.0000000 0.2941176 0.5294118 0.1764706 0.0000000 0.0000000)(0.0000000 0.0000000 0.1111111 0.7777778 0.1111111 0.0000000 0.0000000 0.0000000 0.0000000)(0.1333333 0.2666667 0.4666667 0.1333333 0.0000000 0.0000000 0.0000000 0.0000000 0.0000000))((0.0000000 0.0000000 0.0000000 0.0000000 0.0000000 0.0000000 0.4736842 0.5263158 0.0000000)(0.00000000 0.00000000 0.00000000 0.00000000 0.09090909 0.59090909 0.27272727 0.04545455 0.00000000)(0.0000000 0.0000000 0.0000000 0.2352941 0.5882353 0.1764706 0.0000000 0.0000000 0.0000000)(0.06666667 0.20000000 0.46666667 0.26666667 0.00000000 0.00000000 0.00000000 0.00000000 0.00000000))))((((0.00000000 0.00000000 0.00000000 0.00000000 0.07142857 0.50000000 0.42857143 0.00000000 0.00000000)(0.0000000 0.0000000 0.0000000 0.1428571 0.4285714 0.4285714 0.0000000 0.0000000 0.0000000)(0.0000000 0.0000000 0.2000000 0.6666667 0.1333333 0.0000000 0.0000000 0.0000000 0.0000000)(0.250 0.250 0.375 0.125 0.000 0.000 0.000 0.000 0.000))((0.0000000 0.0000000 0.0000000 0.0000000 0.0000000 0.1111111 0.6666667 0.2222222 0.0000000)(0.000 0.000 0.000 0.000 0.000 0.875 0.125 0.000 0.000)(0.00000000 0.00000000 0.00000000 0.26666667 0.66666667 0.06666667 0.00000000 0.00000000 0.00000000)(0.09090909 0.27272727 0.36363636 0.27272727 0.00000000 0.00000000 0.00000000 0.00000000 0.00000000)))(((0.0000000 0.0000000 0.0000000 0.0000000 0.0000000 0.5833333 0.4166667 0.0000000 0.0000000)(0.000 0.000 0.000 0.125 0.875 0.000 0.000 0.000 0.000)(0.0 0.1 0.1 0.8 0.0 0.0 0.0 0.0 0.0)(0.09090909 0.45454545 0.27272727 0.18181818 0.00000000 0.00000000 0.00000000 0.00000000 0.00000000))((0.0000000 0.0000000 0.0000000 0.0000000 0.0000000 0.2727273 0.7272727 0.0000000 0.0000000)(0.0000000 0.0000000 0.0000000 0.0000000 0.3636364 0.6363636 0.0000000 0.0000000 0.0000000)(0.00000000 0.00000000 0.09090909 0.54545455 0.36363636 0.00000000 0.00000000 0.00000000 0.00000000)(0.0000000 0.1428571 0.1428571 0.7142857 0.0000000 0.0000000 0.0000000 0.0000000 0.0000000))))((((0.0 0.0 0.0 0.0 0.0 1.0 0.0 0.0 0.0)(0.0 0.0 0.0 0.2 0.8 0.0 0.0 0.0 0.0)(0.0 0.2 0.6 0.2 0.0 0.0 0.0 0.0 0.0)(0.5000000 0.3333333 0.1666667 0.0000000 0.0000000 0.0000000 0.0000000 0.0000000 0.0000000))((0.0000000 0.0000000 0.0000000 0.0000000 0.0000000 0.6666667 0.3333333 0.0000000 0.0000000)(0.0000000 0.0000000 0.0000000 0.0000000 0.3333333 0.6666667 0.0000000 0.0000000 0.0000000)(0.0000000 0.0000000 0.0000000 0.4285714 0.5714286 0.0000000 0.0000000 0.0000000 0.0000000)(0.0 0.0 0.4 0.6 0.0 0.0 0.0 0.0 0.0)))(((0.0000000 0.0000000 0.0000000 0.0000000 0.2307692 0.7692308 0.0000000 0.0000000 0.0000000)(0.0 0.0 0.0 0.0 1.0 0.0 0.0 0.0 0.0)(0.0000000 0.1333333 0.4000000 0.4666667 0.0000000 0.0000000 0.0000000 0.0000000 0.0000000)(0.6 0.4 0.0 0.0 0.0 0.0 0.0 0.0 0.0))((0.00 0.00 0.00 0.00 0.00 0.75 0.25 0.00 0.00)(0.0000000 0.0000000 0.0000000 0.1111111 0.5555556 0.3333333 0.0000000 0.0000000 0.0000000)(0.000 0.000 0.500 0.375 0.125 0.000 0.000 0.000 0.000)(0.0 0.4 0.3 0.3 0.0 0.0 0.0 0.0 0.0)))))(((((0.0000000 0.0000000 0.0000000 0.0000000 0.0000000 0.0000000 0.7142857 0.2857143 0.0000000)(0.000 0.000 0.000 0.000 0.000 0.625 0.375 0.000 0.000)(0.00000000 0.00000000 0.00000000 0.06896552 0.48275862 0.44827586 0.00000000 0.00000000 0.00000000)(0.00000000 0.03448276 0.20689655 0.58620690 0.17241379 0.00000000 0.00000000 0.00000000 0.00000000))((0.0000000 0.0000000 0.0000000 0.0000000 0.0000000 0.0000000 0.2352941 0.7647059 0.0000000)(0.0000000 0.0000000 0.0000000 0.0000000 0.0000000 0.3636364 0.6363636 0.0000000 0.0000000)(0.0000000 0.0000000 0.0000000 0.0000000 0.2500000 0.5714286 0.1785714 0.0000000 0.0000000)(0.0000000 0.0000000 0.0000000 0.2142857 0.5714286 0.2142857 0.0000000 0.0000000 0.0000000)))(((0.0000000 0.0000000 0.0000000 0.0000000 0.0000000 0.2222222 0.6666667 0.1111111 0.0000000)(0.0000000 0.0000000 0.0000000 0.0000000 0.1428571 0.6190476 0.2380952 0.0000000 0.0000000)(0.00000000 0.00000000 0.00000000 0.24390244 0.68292683 0.07317073 0.00000000 0.00000000 0.00000000)(0.00000000 0.00000000 0.20833333 0.75000000 0.04166667 0.00000000 0.00000000 0.00000000 0.00000000))((0.0000000 0.0000000 0.0000000 0.0000000 0.0000000 0.0000000 0.3823529 0.6176471 0.0000000)(0.0000000 0.0000000 0.0000000 0.0000000 0.0000000 0.5517241 0.4482759 0.0000000 0.0000000)(0.00000000 0.00000000 0.00000000 0.00000000 0.29032258 0.67741935 0.03225806 0.00000000 0.00000000)(0.0 0.0 0.0 0.5 0.5 0.0 0.0 0.0 0.0))))((((0.00000000 0.00000000 0.00000000 0.00000000 0.07692308 0.53846154 0.38461538 0.00000000 0.00000000)(0.0000000 0.0000000 0.0000000 0.0000000 0.6428571 0.3571429 0.0000000 0.0000000 0.0000000)(0.00 0.00 0.00 0.75 0.25 0.00 0.00 0.00 0.00)(0.00000000 0.07692308 0.30769231 0.61538462 0.00000000 0.00000000 0.00000000 0.00000000 0.00000000))((0.0000000 0.0000000 0.0000000 0.0000000 0.0000000 0.0000000 0.8461538 0.1538462 0.0000000)(0.00000000 0.00000000 0.00000000 0.00000000 0.25000000 0.66666667 0.08333333 0.00000000 0.00000000)(0.00000000 0.00000000 0.00000000 0.05882353 0.88235294 0.05882353 0.00000000 0.00000000 0.00000000)(0.00 0.00 0.00 0.75 0.25 0.00 0.00 0.00 0.00)))(((0.0000000 0.0000000 0.0000000 0.0000000 0.0000000 0.5833333 0.4166667 0.0000000 0.0000000)(0.00000000 0.00000000 0.00000000 0.06666667 0.66666667 0.26666667 0.00000000 0.00000000 0.00000000)(0.00000000 0.00000000 0.09090909 0.63636364 0.27272727 0.00000000 0.00000000 0.00000000 0.00000000)(0.0000000 0.2222222 0.6666667 0.1111111 0.0000000 0.0000000 0.0000000 0.0000000 0.0000000))((0.00000000 0.00000000 0.00000000 0.00000000 0.00000000 0.06666667 0.86666667 0.06666667 0.00000000)(0.0000000 0.0000000 0.0000000 0.0000000 0.0000000 0.8333333 0.1666667 0.0000000 0.0000000)(0.0000000 0.0000000 0.0000000 0.1818182 0.6363636 0.1818182 0.0000000 0.0000000 0.0000000)(0.0 0.0 0.0 0.9 0.1 0.0 0.0 0.0 0.0))))((((0.0000000 0.0000000 0.0000000 0.0000000 0.1428571 0.8571429 0.0000000 0.0000000 0.0000000)(0.00000000 0.00000000 0.00000000 0.00000000 0.92857143 0.07142857 0.00000000 0.00000000 0.00000000)(0.00000000 0.00000000 0.09090909 0.90909091 0.00000000 0.00000000 0.00000000 0.00000000 0.00000000)(0.0000000 0.5714286 0.4285714 0.0000000 0.0000000 0.0000000 0.0000000 0.0000000 0.0000000))((0.0000000 0.0000000 0.0000000 0.0000000 0.0000000 0.4545455 0.5454545 0.0000000 0.0000000)(0.00 0.00 0.00 0.00 0.25 0.75 0.00 0.00 0.00)(0.0000000 0.0000000 0.0000000 0.4444444 0.5555556 0.0000000 0.0000000 0.0000000 0.0000000)(0.00000000 0.00000000 0.14285714 0.78571429 0.07142857 0.00000000 0.00000000 0.00000000 0.00000000)))(((0.00000000 0.00000000 0.00000000 0.00000000 0.35714286 0.57142857 0.07142857 0.00000000 0.00000000)(0.00000000 0.00000000 0.00000000 0.14285714 0.78571429 0.07142857 0.00000000 0.00000000 0.00000000)(0.00000000 0.00000000 0.33333333 0.60000000 0.06666667 0.00000000 0.00000000 0.00000000 0.00000000)(0.0 0.4 0.6 0.0 0.0 0.0 0.0 0.0 0.0))((0.0000000 0.0000000 0.0000000 0.0000000 0.0000000 0.8666667 0.1333333 0.0000000 0.0000000)(0.0000000 0.0000000 0.0000000 0.0000000 0.6923077 0.3076923 0.0000000 0.0000000 0.0000000)(0.00 0.00 0.25 0.50 0.25 0.00 0.00 0.00 0.00)(0.0000000 0.0000000 0.4615385 0.5384615 0.0000000 0.0000000 0.0000000 0.0000000 0.0000000))))))((((((0.00000000 0.00000000 0.00000000 0.00000000 0.00000000 0.00000000 0.02439024 0.97560976 0.00000000)(0.00000000 0.00000000 0.00000000 0.00000000 0.00000000 0.27586207 0.68965517 0.03448276 0.00000000)(0.00 0.00 0.05 0.00 0.45 0.40 0.10 0.00 0.00)(0.05714286 0.14285714 0.28571429 0.42857143 0.02857143 0.05714286 0.00000000 0.00000000 0.00000000))((0.00000000 0.00000000 0.00000000 0.00000000 0.00000000 0.00000000 0.00000000 0.97674419 0.02325581)(0.00000000 0.00000000 0.00000000 0.00000000 0.00000000 0.02702703 0.62162162 0.35135135 0.00000000)(0.00000000 0.00000000 0.00000000 0.03333333 0.16666667 0.50000000 0.30000000 0.00000000 0.00000000)(0.00000000 0.03703704 0.03703704 0.40740741 0.37037037 0.14814815 0.00000000 0.00000000 0.00000000)))(((0.0 0.0 0.0 0.0 0.0 0.0 0.2 0.8 0.0)(0.00000000 0.00000000 0.00000000 0.00000000 0.03448276 0.20689655 0.75862069 0.00000000 0.00000000)(0.00000000 0.00000000 0.02941176 0.26470588 0.44117647 0.23529412 0.02941176 0.00000000 0.00000000)(0.08333333 0.29166667 0.25000000 0.37500000 0.00000000 0.00000000 0.00000000 0.00000000 0.00000000))((0.00000000 0.00000000 0.00000000 0.00000000 0.00000000 0.00000000 0.07142857 0.92857143 0.00000000)(0.00000000 0.00000000 0.00000000 0.00000000 0.00000000 0.03333333 0.50000000 0.46666667 0.00000000)(0.0000000 0.0000000 0.0000000 0.0000000 0.2592593 0.4444444 0.2962963 0.0000000 0.0000000)(0.00 0.08 0.04 0.36 0.44 0.08 0.00 0.00 0.00))))((((0.0000000 0.0000000 0.0000000 0.0000000 0.0000000 0.0000000 0.6842105 0.3157895 0.0000000)(0.0000 0.0000 0.0000 0.0000 0.0625 0.5000 0.4375 0.0000 0.0000)(0.0000000 0.0000000 0.0000000 0.1666667 0.5833333 0.2500000 0.0000000 0.0000000 0.0000000)(0.2307692 0.1538462 0.3846154 0.2307692 0.0000000 0.0000000 0.0000000 0.0000000 0.0000000))((0.0000000 0.0000000 0.0000000 0.0000000 0.0000000 0.0000000 0.2222222 0.7777778 0.0000000)(0.00000000 0.00000000 0.00000000 0.00000000 0.00000000 0.08333333 0.75000000 0.16666667 0.00000000)(0.0000 0.0000 0.0000 0.0000 0.2500 0.5625 0.1875 0.0000 0.0000)(0.00000000 0.08333333 0.33333333 0.25000000 0.33333333 0.00000000 0.00000000 0.00000000 0.00000000)))(((0.0000 0.0000 0.0000 0.0000 0.0000 0.2500 0.6875 0.0625 0.0000)(0.00000000 0.00000000 0.00000000 0.00000000 0.27272727 0.63636364 0.09090909 0.00000000 0.00000000)(0.0000000 0.0000000 0.0000000 0.3333333 0.4000000 0.2666667 0.0000000 0.0000000 0.0000000)(0.05263158 0.31578947 0.47368421 0.10526316 0.05263158 0.00000000 0.00000000 0.00000000 0.00000000))((0.00000000 0.00000000 0.00000000 0.00000000 0.00000000 0.07142857 0.35714286 0.57142857 0.00000000)(0.0000000 0.0000000 0.0000000 0.0000000 0.0000000 0.2307692 0.7692308 0.0000000 0.0000000)(0.0000000 0.0000000 0.0000000 0.1333333 0.6666667 0.2000000 0.0000000 0.0000000 0.0000000)(0.0000000 0.0000000 0.2000000 0.2666667 0.4000000 0.1333333 0.0000000 0.0000000 0.0000000))))((((0.0000000 0.0000000 0.0000000 0.0000000 0.0000000 0.2380952 0.7619048 0.0000000 0.0000000)(0.00000000 0.00000000 0.00000000 0.09090909 0.45454545 0.45454545 0.00000000 0.00000000 0.00000000)(0.0000000 0.0000000 0.0000000 0.4285714 0.5714286 0.0000000 0.0000000 0.0000000 0.0000000)(0.0000000 0.2307692 0.3846154 0.3846154 0.0000000 0.0000000 0.0000000 0.0000000 0.0000000))((0.0 0.0 0.0 0.0 0.0 0.0 0.6 0.4 0.0)(0.00000000 0.00000000 0.00000000 0.00000000 0.09090909 0.72727273 0.18181818 0.00000000 0.00000000)(0.0000000 0.0000000 0.0000000 0.0000000 0.5384615 0.4615385 0.0000000 0.0000000 0.0000000)(0.0000000 0.0000000 0.2142857 0.5000000 0.2857143 0.0000000 0.0000000 0.0000000 0.0000000)))(((0.00000000 0.00000000 0.00000000 0.00000000 0.00000000 0.38461538 0.53846154 0.07692308 0.00000000)(0.0 0.0 0.0 0.0 0.5 0.5 0.0 0.0 0.0)(0.00000000 0.00000000 0.09090909 0.63636364 0.27272727 0.00000000 0.00000000 0.00000000 0.00000000)(0.0625 0.3125 0.5000 0.1250 0.0000 0.0000 0.0000 0.0000 0.0000))((0.00000000 0.00000000 0.00000000 0.00000000 0.00000000 0.05555556 0.55555556 0.38888889 0.00000000)(0.0 0.0 0.0 0.0 0.0 0.8 0.2 0.0 0.0)(0.00000000 0.00000000 0.00000000 0.07142857 0.64285714 0.28571429 0.00000000 0.00000000 0.00000000)(0.0 0.1 0.2 0.6 0.1 0.0 0.0 0.0 0.0)))))(((((0.00000000 0.00000000 0.00000000 0.00000000 0.00000000 0.00000000 0.06521739 0.93478261 0.00000000)(0.0000000 0.0000000 0.0000000 0.0000000 0.0000000 0.1372549 0.6666667 0.1960784 0.0000000)(0.0000000 0.0000000 0.0000000 0.0000000 0.1632653 0.5510204 0.2857143 0.0000000 0.0000000)(0.00000000 0.00000000 0.00000000 0.18367347 0.69387755 0.10204082 0.02040816 0.00000000 0.00000000))((0.00000000 0.00000000 0.00000000 0.00000000 0.00000000 0.00000000 0.05454545 0.94545455 0.00000000)(0.000 0.000 0.000 0.000 0.000 0.025 0.175 0.800 0.000)(0.00000000 0.00000000 0.00000000 0.00000000 0.00000000 0.34146341 0.56097561 0.09756098 0.00000000)(0.00000000 0.00000000 0.00000000 0.04878049 0.17073171 0.65853659 0.12195122 0.00000000 0.00000000)))(((0.0000 0.0000 0.0000 0.0000 0.0000 0.0000 0.1875 0.8125 0.0000)(0.0000000 0.0000000 0.0000000 0.0000000 0.0000000 0.3235294 0.5294118 0.1470588 0.0000000)(0.0000000 0.0000000 0.0000000 0.0000000 0.1904762 0.5952381 0.2142857 0.0000000 0.0000000)(0.00000000 0.00000000 0.04081633 0.48979592 0.38775510 0.08163265 0.00000000 0.00000000 0.00000000))((0.0 0.0 0.0 0.0 0.0 0.0 0.0 1.0 0.0)(0.0000000 0.0000000 0.0000000 0.0000000 0.0000000 0.0000000 0.4054054 0.5945946 0.0000000)(0.0000000 0.0000000 0.0000000 0.0000000 0.0000000 0.4615385 0.5384615 0.0000000 0.0000000)(0.00000000 0.00000000 0.00000000 0.07317073 0.46341463 0.43902439 0.02439024 0.00000000 0.00000000))))((((0.00000000 0.00000000 0.00000000 0.00000000 0.00000000 0.03448276 0.44827586 0.51724138 0.00000000)(0.00000000 0.00000000 0.00000000 0.00000000 0.05555556 0.55555556 0.38888889 0.00000000 0.00000000)(0.00 0.00 0.00 0.00 0.75 0.25 0.00 0.00 0.00)(0.00000000 0.00000000 0.00000000 0.51851852 0.40740741 0.07407407 0.00000000 0.00000000 0.00000000))((0.0000000 0.0000000 0.0000000 0.0000000 0.0000000 0.0000000 0.2068966 0.7931034 0.0000000)(0.0000000 0.0000000 0.0000000 0.0000000 0.0000000 0.1363636 0.7272727 0.1363636 0.0000000)(0.00000000 0.00000000 0.00000000 0.00000000 0.08695652 0.78260870 0.13043478 0.00000000 0.00000000)(0.0 0.0 0.0 0.2 0.3 0.5 0.0 0.0 0.0)))(((0.00000000 0.00000000 0.00000000 0.00000000 0.00000000 0.04166667 0.62500000 0.33333333 0.00000000)(0.00000000 0.00000000 0.00000000 0.00000000 0.08333333 0.62500000 0.29166667 0.00000000 0.00000000)(0.00000000 0.00000000 0.00000000 0.08333333 0.70833333 0.20833333 0.00000000 0.00000000 0.00000000)(0.00000000 0.00000000 0.09090909 0.68181818 0.22727273 0.00000000 0.00000000 0.00000000 0.00000000))((0.00 0.00 0.00 0.00 0.00 0.00 0.32 0.68 0.00)(0.00000000 0.00000000 0.00000000 0.00000000 0.00000000 0.17391304 0.73913043 0.08695652 0.00000000)(0.00000000 0.00000000 0.00000000 0.00000000 0.14285714 0.80952381 0.04761905 0.00000000 0.00000000)(0.00000000 0.00000000 0.00000000 0.08333333 0.66666667 0.25000000 0.00000000 0.00000000 0.00000000))))((((0.00000000 0.00000000 0.00000000 0.00000000 0.00000000 0.29166667 0.62500000 0.08333333 0.00000000)(0.0000000 0.0000000 0.0000000 0.0000000 0.3157895 0.4736842 0.2105263 0.0000000 0.0000000)(0.0000000 0.0000000 0.0000000 0.4705882 0.5294118 0.0000000 0.0000000 0.0000000 0.0000000)(0.00000000 0.05555556 0.27777778 0.61111111 0.05555556 0.00000000 0.00000000 0.00000000 0.00000000))((0.00000000 0.00000000 0.00000000 0.00000000 0.00000000 0.06666667 0.53333333 0.40000000 0.00000000)(0.0000 0.0000 0.0000 0.0000 0.0625 0.5000 0.4375 0.0000 0.0000)(0.0000000 0.0000000 0.0000000 0.0000000 0.4705882 0.5294118 0.0000000 0.0000000 0.0000000)(0.0000000 0.0000000 0.0000000 0.3333333 0.4666667 0.2000000 0.0000000 0.0000000 0.0000000)))(((0.0000000 0.0000000 0.0000000 0.0000000 0.0000000 0.5925926 0.4074074 0.0000000 0.0000000)(0.00000000 0.00000000 0.00000000 0.05555556 0.44444444 0.44444444 0.05555556 0.00000000 0.00000000)(0.00000000 0.00000000 0.06666667 0.26666667 0.66666667 0.00000000 0.00000000 0.00000000 0.00000000)(0.00000000 0.10526316 0.31578947 0.52631579 0.05263158 0.00000000 0.00000000 0.00000000 0.00000000))((0.0000000 0.0000000 0.0000000 0.0000000 0.0000000 0.1379310 0.6206897 0.2413793 0.0000000)(0.0000000 0.0000000 0.0000000 0.0000000 0.1052632 0.5789474 0.3157895 0.0000000 0.0000000)(0.0000000 0.0000000 0.0000000 0.0000000 0.6470588 0.3529412 0.0000000 0.0000000 0.0000000)(0.0000000 0.0000000 0.0000000 0.4347826 0.3478261 0.2173913 0.0000000 0.0000000 0.0000000))))))) ;
}
